digraph Tree {
node [shape=box, style="filled, rounded", color="black", fontname="helvetica"] ;
edge [fontname="helvetica"] ;
0 [label="density <= 0.99\nsquared_error = 1.5\nsamples = 3673\nvalue = 10.51", fillcolor="#f6d1b7"] ;
1 [label="density <= 0.99\nsquared_error = 0.82\nsamples = 1302\nvalue = 11.7", fillcolor="#eda775"] ;
0 -> 1 [labeldistance=2.5, labelangle=45, headlabel="True"] ;
2 [label="density <= 0.99\nsquared_error = 0.38\nsamples = 360\nvalue = 12.52", fillcolor="#e78a47"] ;
1 -> 2 ;
3 [label="squared_error = 0.3\nsamples = 185\nvalue = 12.78", fillcolor="#e58139"] ;
2 -> 3 ;
4 [label="squared_error = 0.32\nsamples = 175\nvalue = 12.24", fillcolor="#e99457"] ;
2 -> 4 ;
5 [label="residual sugar <= 3.88\nsquared_error = 0.64\nsamples = 942\nvalue = 11.39", fillcolor="#efb286"] ;
1 -> 5 ;
6 [label="squared_error = 0.5\nsamples = 698\nvalue = 11.15", fillcolor="#f1bb93"] ;
5 -> 6 ;
7 [label="squared_error = 0.43\nsamples = 244\nvalue = 12.07", fillcolor="#ea9a61"] ;
5 -> 7 ;
8 [label="density <= 1.0\nsquared_error = 0.67\nsamples = 2371\nvalue = 9.86", fillcolor="#fae8db"] ;
0 -> 8 [labeldistance=2.5, labelangle=-45, headlabel="False"] ;
9 [label="residual sugar <= 8.15\nsquared_error = 0.66\nsamples = 1131\nvalue = 10.28", fillcolor="#f7dac4"] ;
8 -> 9 ;
10 [label="squared_error = 0.5\nsamples = 960\nvalue = 10.12", fillcolor="#f8dfcd"] ;
9 -> 10 ;
11 [label="squared_error = 0.56\nsamples = 171\nvalue = 11.18", fillcolor="#f1b992"] ;
9 -> 11 ;
12 [label="density <= 1.0\nsquared_error = 0.38\nsamples = 1240\nvalue = 9.48", fillcolor="#fdf6f1"] ;
8 -> 12 ;
13 [label="squared_error = 0.39\nsamples = 646\nvalue = 9.72", fillcolor="#fbede3"] ;
12 -> 13 ;
14 [label="squared_error = 0.23\nsamples = 594\nvalue = 9.22", fillcolor="#ffffff"] ;
12 -> 14 ;
}